<?xml version="1.0"?>
<opencv_storage>
<cascade>
  <stageType>BOOST</stageType>
  <featureType>HAAR</featureType>
  <height>24</height>
  <width>24</width>
  <stageParams>
    <boostType>GAB</boostType>
    <minHitRate>9.9500000476837158e-01</minHitRate>
    <maxFalseAlarm>5.0000000000000000e-01</maxFalseAlarm>
    <weightTrimRate>9.4999999999999996e-01</weightTrimRate>
    <maxDepth>1</maxDepth>
    <maxWeakCount>100</maxWeakCount></stageParams>
  <featureParams>
    <maxCatCount>0</maxCatCount>
    <featSize>1</featSize>
    <mode>BASIC</mode></featureParams>
  <stageNum>5</stageNum>
  <stages>
    <!-- stage 0 -->
    <_>
      <maxWeakCount>1</maxWeakCount>
      <stageThreshold>9.3636363744735718e-01</stageThreshold>
      <weakClassifiers>
        <_>
          <internalNodes>
            0 -1 6 -3.2604473829269409e-01</internalNodes>
          <leafValues>
            9.3636363744735718e-01 -1.</leafValues></_></weakClassifiers></_>
    <!-- stage 1 -->
    <_>
      <maxWeakCount>1</maxWeakCount>
      <stageThreshold>6.6406250000000000e-01</stageThreshold>
      <weakClassifiers>
        <_>
          <internalNodes>
            0 -1 9 -5.3412113338708878e-03</internalNodes>
          <leafValues>
            6.6406250000000000e-01 -1.</leafValues></_></weakClassifiers></_>
    <!-- stage 2 -->
    <_>
      <maxWeakCount>2</maxWeakCount>
      <stageThreshold>-2.2907909750938416e-01</stageThreshold>
      <weakClassifiers>
        <_>
          <internalNodes>
            0 -1 5 -2.0544078946113586e-01</internalNodes>
          <leafValues>
            8.5185188055038452e-01 -8.5496181249618530e-01</leafValues></_>
        <_>
          <internalNodes>
            0 -1 7 -4.3867767089977860e-04</internalNodes>
          <leafValues>
            6.2588274478912354e-01 -9.6884489059448242e-01</leafValues></_></weakClassifiers></_>
    <!-- stage 3 -->
    <_>
      <maxWeakCount>2</maxWeakCount>
      <stageThreshold>-5.6296372413635254e-01</stageThreshold>
      <weakClassifiers>
        <_>
          <internalNodes>
            0 -1 4 1.9109265878796577e-02</internalNodes>
          <leafValues>
            -9.5642703771591187e-01 5.9842520952224731e-01</leafValues></_>
        <_>
          <internalNodes>
            0 -1 2 1.2090142990928143e-04</internalNodes>
          <leafValues>
            -1. 3.9346328377723694e-01</leafValues></_></weakClassifiers></_>
    <!-- stage 4 -->
    <_>
      <maxWeakCount>4</maxWeakCount>
      <stageThreshold>-1.0529067516326904e+00</stageThreshold>
      <weakClassifiers>
        <_>
          <internalNodes>
            0 -1 8 -4.2049631476402283e-02</internalNodes>
          <leafValues>
            6.6037738323211670e-01 -8.5229539871215820e-01</leafValues></_>
        <_>
          <internalNodes>
            0 -1 1 1.2393802171573043e-04</internalNodes>
          <leafValues>
            -9.5331442356109619e-01 4.1622763872146606e-01</leafValues></_>
        <_>
          <internalNodes>
            0 -1 0 -7.0530292578041553e-04</internalNodes>
          <leafValues>
            3.7588319182395935e-01 -9.8930817842483521e-01</leafValues></_>
        <_>
          <internalNodes>
            0 -1 3 -8.6062398622743785e-05</internalNodes>
          <leafValues>
            -1. 3.7681984901428223e-01</leafValues></_></weakClassifiers></_></stages>
  <features>
    <_>
      <rects>
        <_>
          1 0 2 6 -1.</_>
        <_>
          1 0 1 3 2.</_>
        <_>
          2 3 1 3 2.</_></rects>
      <tilted>0</tilted></_>
    <_>
      <rects>
        <_>
          1 15 1 2 -1.</_>
        <_>
          1 16 1 1 2.</_></rects>
      <tilted>0</tilted></_>
    <_>
      <rects>
        <_>
          3 0 1 2 -1.</_>
        <_>
          3 1 1 1 2.</_></rects>
      <tilted>0</tilted></_>
    <_>
      <rects>
        <_>
          3 6 2 18 -1.</_>
        <_>
          3 12 2 6 3.</_></rects>
      <tilted>0</tilted></_>
    <_>
      <rects>
        <_>
          3 12 5 12 -1.</_>
        <_>
          3 16 5 4 3.</_></rects>
      <tilted>0</tilted></_>
    <_>
      <rects>
        <_>
          4 11 15 12 -1.</_>
        <_>
          9 11 5 12 3.</_></rects>
      <tilted>0</tilted></_>
    <_>
      <rects>
        <_>
          6 0 8 24 -1.</_>
        <_>
          6 12 8 12 2.</_></rects>
      <tilted>0</tilted></_>
    <_>
      <rects>
        <_>
          6 6 1 3 -1.</_>
        <_>
          6 7 1 1 3.</_></rects>
      <tilted>0</tilted></_>
    <_>
      <rects>
        <_>
          7 14 3 10 -1.</_>
        <_>
          7 19 3 5 2.</_></rects>
      <tilted>0</tilted></_>
    <_>
      <rects>
        <_>
          22 0 2 15 -1.</_>
        <_>
          23 0 1 15 2.</_></rects>
      <tilted>0</tilted></_></features></cascade>
</opencv_storage>
